digraph Tree {
node [shape=box, style="filled, rounded", color="black", fontname="helvetica"] ;
edge [fontname="helvetica"] ;
0 [label=<checking_account_A14 &le; 0.5<br/>gini = 0.419<br/>samples = 700<br/>value = [491.0, 209.0]>, fillcolor="#f0b78d"] ;
1 [label=<duration &le; 33.0<br/>gini = 0.484<br/>samples = 425<br/>value = [251, 174]>, fillcolor="#f7d8c2"] ;
0 -> 1 [labeldistance=2.5, labelangle=45, headlabel="True"] ;
2 [label=<credit_amount &le; 10975.5<br/>gini = 0.458<br/>samples = 343<br/>value = [221, 122]>, fillcolor="#f3c7a6"] ;
1 -> 2 ;
3 [label=<gini = 0.451<br/>samples = 337<br/>value = [221, 116]>, fillcolor="#f3c3a1"] ;
2 -> 3 ;
4 [label=<gini = 0.0<br/>samples = 6<br/>value = [0, 6]>, fillcolor="#399de5"] ;
2 -> 4 ;
5 [label=<savings_acc_A65 &le; 0.5<br/>gini = 0.464<br/>samples = 82<br/>value = [30, 52]>, fillcolor="#abd6f4"] ;
1 -> 5 ;
6 [label=<gini = 0.431<br/>samples = 70<br/>value = [22, 48]>, fillcolor="#94caf1"] ;
5 -> 6 ;
7 [label=<gini = 0.444<br/>samples = 12<br/>value = [8, 4]>, fillcolor="#f2c09c"] ;
5 -> 7 ;
8 [label=<inst_plans_A143 &le; 0.5<br/>gini = 0.222<br/>samples = 275<br/>value = [240.0, 35.0]>, fillcolor="#e99356"] ;
0 -> 8 [labeldistance=2.5, labelangle=-45, headlabel="False"] ;
9 [label=<purpose_A43 &le; 0.5<br/>gini = 0.423<br/>samples = 46<br/>value = [32, 14]>, fillcolor="#f0b890"] ;
8 -> 9 ;
10 [label=<gini = 0.482<br/>samples = 32<br/>value = [19, 13]>, fillcolor="#f7d7c0"] ;
9 -> 10 ;
11 [label=<gini = 0.133<br/>samples = 14<br/>value = [13, 1]>, fillcolor="#e78b48"] ;
9 -> 11 ;
12 [label=<age &le; 23.5<br/>gini = 0.167<br/>samples = 229<br/>value = [208, 21]>, fillcolor="#e88e4d"] ;
8 -> 12 ;
13 [label=<gini = 0.48<br/>samples = 15<br/>value = [9, 6]>, fillcolor="#f6d5bd"] ;
12 -> 13 ;
14 [label=<gini = 0.13<br/>samples = 214<br/>value = [199.0, 15.0]>, fillcolor="#e78a48"] ;
12 -> 14 ;
}